digraph Tree {
node [shape=box, style="rounded", color="black", fontname="helvetica"] ;
edge [fontname="helvetica"] ;
0 [label="Gender <= 0.5\ngini = 0.9\nsamples = 30\nvalue = [3, 3, 3, 3, 3, 3, 3, 3, 3, 3]\nclass = Action"] ;
1 [label="Age <= 25.5\ngini = 0.8\nsamples = 15\nvalue = [0, 3, 0, 3, 3, 3, 0, 0, 3, 0]\nclass = Adventure"] ;
0 -> 1 [labeldistance=2.5, labelangle=45, headlabel="True"] ;
2 [label="gini = 0.0\nsamples = 3\nvalue = [0, 0, 0, 0, 3, 0, 0, 0, 0, 0]\nclass = Dramas"] ;
1 -> 2 ;
3 [label="Age <= 35.0\ngini = 0.75\nsamples = 12\nvalue = [0, 3, 0, 3, 0, 3, 0, 0, 3, 0]\nclass = Adventure"] ;
1 -> 3 ;
4 [label="Actress <= 109.5\ngini = 0.5\nsamples = 6\nvalue = [0, 3, 0, 3, 0, 0, 0, 0, 0, 0]\nclass = Adventure"] ;
3 -> 4 ;
5 [label="gini = 0.0\nsamples = 3\nvalue = [0, 0, 0, 3, 0, 0, 0, 0, 0, 0]\nclass = Crime"] ;
4 -> 5 ;
6 [label="gini = 0.0\nsamples = 3\nvalue = [0, 3, 0, 0, 0, 0, 0, 0, 0, 0]\nclass = Adventure"] ;
4 -> 6 ;
7 [label="Age <= 40.0\ngini = 0.5\nsamples = 6\nvalue = [0, 0, 0, 0, 0, 3, 0, 0, 3, 0]\nclass = Fantasy"] ;
3 -> 7 ;
8 [label="gini = 0.0\nsamples = 3\nvalue = [0, 0, 0, 0, 0, 0, 0, 0, 3, 0]\nclass = Science-Fiction"] ;
7 -> 8 ;
9 [label="gini = 0.0\nsamples = 3\nvalue = [0, 0, 0, 0, 0, 3, 0, 0, 0, 0]\nclass = Fantasy"] ;
7 -> 9 ;
10 [label="Age <= 24.5\ngini = 0.8\nsamples = 15\nvalue = [3, 0, 3, 0, 0, 0, 3, 3, 0, 3]\nclass = Action"] ;
0 -> 10 [labeldistance=2.5, labelangle=-45, headlabel="False"] ;
11 [label="gini = 0.0\nsamples = 3\nvalue = [0, 0, 0, 0, 0, 0, 0, 0, 0, 3]\nclass = Thriller"] ;
10 -> 11 ;
12 [label="Age <= 35.5\ngini = 0.75\nsamples = 12\nvalue = [3, 0, 3, 0, 0, 0, 3, 3, 0, 0]\nclass = Action"] ;
10 -> 12 ;
13 [label="Age <= 30.0\ngini = 0.5\nsamples = 6\nvalue = [3, 0, 0, 0, 0, 0, 3, 0, 0, 0]\nclass = Action"] ;
12 -> 13 ;
14 [label="gini = 0.0\nsamples = 3\nvalue = [3, 0, 0, 0, 0, 0, 0, 0, 0, 0]\nclass = Action"] ;
13 -> 14 ;
15 [label="gini = 0.0\nsamples = 3\nvalue = [0, 0, 0, 0, 0, 0, 3, 0, 0, 0]\nclass = Horror"] ;
13 -> 15 ;
16 [label="Age <= 39.5\ngini = 0.5\nsamples = 6\nvalue = [0, 0, 3, 0, 0, 0, 0, 3, 0, 0]\nclass = Comedy"] ;
12 -> 16 ;
17 [label="gini = 0.0\nsamples = 3\nvalue = [0, 0, 0, 0, 0, 0, 0, 3, 0, 0]\nclass = Romance"] ;
16 -> 17 ;
18 [label="gini = 0.0\nsamples = 3\nvalue = [0, 0, 3, 0, 0, 0, 0, 0, 0, 0]\nclass = Comedy"] ;
16 -> 18 ;
}